tree
version=v4
num_class=1
num_tree_per_iteration=1
label_index=0
max_feature_idx=19
objective=quantile
feature_names=ig_engagement_rate ig_size_score ig_health_score brand_demand_score site_serp_coverage_score number_employes meta_active_ads_count google_confidence ig_is_verified platform_group has_meta_ads is_usd_origin log_ig_followers log_monthly_visits log_product_count log_avg_price price_range_ratio company_age log_fb_followers log_tiktok_followers
feature_infos=[0:35.840000000000003] [18:84] [7:92] [0.25:0.84999999999999998] none [0:21000] [0:50001] none [0:1] -1:1:0:2 [0:1] [0:1] [3.5835189384561099:15.267213374219406] [5.6204008657171496:13.685610279145118] [0:7.0909098220799835] [0:14.404670168833491] [0:33.68137420006736] [2:30] [0:15.319588176962746] [0:15.29711532616119]
tree_sizes=641 865 666 682 747 866 870 887 665 877 763 892 663 556 771 664 670 662 867 875 764 865 877 870 675 874 869 767 751 875 891 869 870 868 668 874 666 879 671 567 671 668 766 872 868 866 877 880 672 874 773 666 876 772 568 566 875 765 869 674 672 882 672 773 569 566 672 672 559 666 667 775 898 484 671 688 569 886 574 879 668 779 779 472 570

Tree=0
num_leaves=5
num_cat=0
split_feature=16 10 19 16
split_gain=9.34831 5.48422 4.37161 2.49475
threshold=1.0728880064972428 1.0000000180025095e-35 3.7012257604091228 1.7348925388612251
decision_type=8 2 2 8
left_child=-1 3 -3 -2
right_child=1 2 -4 -5
leaf_value=3.9647252289978678 4.0191800117492678 4.09303522192904 4.2418982669701277 3.8486956753600086
leaf_weight=49.044682741165161 26.452404260635376 224.91301298141479 609.64718222618103 63.469150066375732
leaf_count=11 6 34 80 11
internal_value=4.18894 4.19145 4.19422 4.17055
internal_weight=973.526 924.482 834.56 89.9216
internal_count=142 131 114 17
is_linear=0
shrinkage=1


Tree=1
num_leaves=7
num_cat=0
split_feature=14 1 6 5 12 2
split_gain=10.2027 7.46559 2.49266 1.61469 1.36921 0.228661
threshold=2.602003343538398 60.500000000000007 1.0000000180025095e-35 14.000000000000002 12.326519243292747 70.500000000000014
decision_type=2 2 2 8 2 2
left_child=1 -1 3 -2 -3 -4
right_child=2 4 5 -5 -6 -7
leaf_value=-0.19430877094287624 0.052411489486694322 -0.024221209634445386 0.035081231302773817 -0.21941666283285013 -0.13204464920706416 -0.33367682807043153
leaf_weight=66.913765907287598 33.964212417602539 98.776248931884766 660.4259786605835 40.524286270141602 33.322504043579102 39.599436044692993
leaf_count=16 5 15 87 8 5 6
internal_value=0.00116105 -0.0178532 0.00649908 -0.00866833 -0.0017926 0.00844785
internal_weight=973.526 199.013 774.514 74.4885 132.099 700.025
internal_count=142 36 106 13 20 93
is_linear=0
shrinkage=0.1


Tree=2
num_leaves=5
num_cat=0
split_feature=13 6 16 16
split_gain=7.93705 4.51292 4.62552 2.31098
threshold=7.927626521051196 1.0000000180025095e-35 1.8598549956230401 4.3959732894549957
decision_type=2 2 10 8
left_child=-1 2 -2 -3
right_child=1 3 -4 -5
leaf_value=-0.40624874380729087 -0.39817172873656476 0.037118059860808648 -0.25088746423914909 -0.075482902102214311
leaf_weight=37.233457326889038 28.875256299972534 680.26083183288574 55.503003120422363 171.65388369560242
leaf_count=9 7 90 9 27
internal_value=0.00162012 0.00384796 -0.0156753 0.00621156
internal_weight=973.526 936.293 84.3783 851.915
internal_count=142 133 16 117
is_linear=0
shrinkage=0.1


Tree=3
num_leaves=5
num_cat=1
split_feature=13 9 13 6
split_gain=8.13053 2.10291 3.31492 1.76607
threshold=7.927626521051196 0 10.42857400102154 1.0000000180025095e-35
decision_type=2 1 2 2
left_child=-1 2 -2 -3
right_child=1 3 -4 -5
leaf_value=-0.36562386942656178 -0.088408289516977351 -0.10349641612545368 -0.11129189407613632 0.04765025451507815
leaf_weight=37.233457326889038 99.290701866149902 76.412112474441528 29.458785057067871 731.13137555122375
leaf_count=9 16 14 6 97
internal_value=0.00205552 0.00430032 -0.00650378 0.00625924
internal_weight=973.526 936.293 128.749 807.543
internal_count=142 133 22 111
cat_boundaries=0 1
cat_threshold=1
is_linear=0
shrinkage=0.1


Tree=4
num_leaves=6
num_cat=0
split_feature=14 10 19 5 12
split_gain=3.3419 4.52569 2.03712 1.02366 0.675154
threshold=2.602003343538398 1.0000000180025095e-35 2.5852419975190766 inf 12.765246408267499
decision_type=2 2 2 8 2
left_child=1 -1 -3 -2 -5
right_child=3 2 -4 4 -6
leaf_value=-0.37794751594201004 0.066307227220231038 -0.11962466997581978 0.00064420655999680341 0.013049106187604973 -0.0059223250323500844
leaf_weight=26.286272048950195 440.64152097702026 55.272026062011719 117.45422077178955 288.08260130882263 45.789791107177734
leaf_count=7 58 10 19 42 6
internal_value=0.00320213 -0.00762763 0 0.00623268 0.00154161
internal_weight=973.526 199.013 172.726 774.514 333.872
internal_count=142 36 29 106 48
is_linear=0
shrinkage=0.1


Tree=5
num_leaves=7
num_cat=0
split_feature=14 19 6 6 3 19
split_gain=2.29315 2.46646 1.82932 1.08007 0.906212 0.932508
threshold=3.2951505240983434 2.5852419975190766 539.00000000000011 112.00000000000001 0.45850000000000007 10.329924090901896
decision_type=2 2 2 2 2 2
left_child=1 2 -1 -3 5 -2
right_child=4 3 -4 -5 -6 -7
leaf_value=-0.092859722967532088 -0.0067274482125067731 0.0010661787307071258 0.26492983459007391 -0.0053300925291150493 0.08240649953831479 -0.14324149178486564
leaf_weight=74.098492860794067 55.528425693511963 230.92453360557556 25.757774829864502 36.76557445526123 505.83250570297241 44.619125127792358
leaf_count=15 8 38 3 5 66 7
internal_value=0.00311872 -0.00283241 -0.0148906 0.00204054 0.0068632 -0.000840715
internal_weight=973.526 367.546 99.8563 267.69 605.98 100.148
internal_count=142 61 18 43 81 15
is_linear=0
shrinkage=0.1


Tree=6
num_leaves=7
num_cat=0
split_feature=16 12 18 5 13 12
split_gain=2.34841 3.04104 0.829244 1.49252 0.723943 0.713504
threshold=0.81671327086638856 12.326519243292747 10.239357386235183 105.50000000000001 9.5634233555765125 8.7836118020436214
decision_type=10 2 2 8 2 2
left_child=1 5 4 -4 -2 -1
right_child=2 -3 3 -5 -6 -7
leaf_value=-0.3083646740106798 0.00027418684244507479 -0.078914265374187498 0.13136085023919206 -0.11852471316521895 0.081794346838127918 -0.0035772894757776816
leaf_weight=38.927408933639526 245.19676470756531 28.926953315734863 59.673346519470215 31.710943937301636 494.09846782684326 74.992547035217285
leaf_count=9 40 5 7 6 63 12
internal_value=0.00397602 -0.00689266 0.0060807 -0.00176645 0.00720337 0.0010533
internal_weight=973.526 142.847 830.68 91.3843 739.295 113.92
internal_count=142 26 116 13 103 21
is_linear=0
shrinkage=0.1


Tree=7
num_leaves=7
num_cat=1
split_feature=9 19 13 16 16 1
split_gain=2.81105 2.52774 0.741197 0.616338 0.184637 0.181249
threshold=0 2.5852419975190766 9.7219781729530492 3.0402618552238394 4.5592112315735855 64.500000000000014
decision_type=1 2 2 10 10 2
left_child=1 -1 3 -2 -4 -3
right_child=2 5 4 -5 -6 -7
leaf_value=-0.10805712601225446 0.00069113557128438672 -0.22322793588367684 0.10328307093082925 -0.1117106312726341 -0.21774770283375267 0.0055014307379870793
leaf_weight=51.728810787200928 200.87204647064209 33.294516086578369 508.92768812179565 80.51659631729126 47.085335969924927 51.101438522338867
leaf_count=10 35 6 63 13 7 8
internal_value=0.00449734 -0.00772523 0.00673469 0.00189355 0.00886028 0.00244188
internal_weight=973.526 136.125 837.402 281.389 556.013 84.396
internal_count=142 24 118 48 70 14
cat_boundaries=0 1
cat_threshold=1
is_linear=0
shrinkage=0.1


Tree=8
num_leaves=5
num_cat=0
split_feature=18 14 0 5
split_gain=1.17935 1.77755 1.63446 0.859817
threshold=11.14019317602083 2.602003343538398 0.23500000000000001 40.000000000000007
decision_type=2 2 2 10
left_child=1 2 -1 -2
right_child=3 -3 -4 -5
leaf_value=-0.00033484826346917731 -0.084897471565321819 0.043217707478534206 -0.041487431910536582 0.12155793712193655
leaf_weight=114.79719114303589 33.79824423789978 730.29288244247437 65.059856414794922 29.578258037567139
leaf_count=19 6 99 14 4
internal_value=0.00583554 0.00681906 -0.00149651 -0.00533708
internal_weight=973.526 910.15 179.857 63.3765
internal_count=142 132 33 10
is_linear=0
shrinkage=0.1


Tree=9
num_leaves=7
num_cat=0
split_feature=3 1 3 15 12 1
split_gain=0.806798 1.73191 1.75204 0.582853 0.540836 0.186949
threshold=0.47500000000000003 62.500000000000007 0.40850000000000003 1.0000000180025095e-35 11.60909085883406 74.500000000000014
decision_type=2 2 2 2 2 2
left_child=1 2 -1 4 -2 -3
right_child=3 5 -4 -5 -6 -7
leaf_value=0.0036293896230143122 -0.16711933308157606 -0.0029795183822853943 -0.29807651128758339 0.037399829908154811 -0.060183641409196346 -0.076407724408789651
leaf_weight=28.022387504577637 52.926909446716309 97.006409645080566 41.657308578491211 697.48113346099854 25.212546825408936 31.219736814498901
leaf_count=5 9 15 9 96 4 4
internal_value=0.00454221 -0.000671618 -0.0119549 0.00598169 -0.000965592 0.00557099
internal_weight=973.526 197.906 69.6797 775.621 78.1395 128.226
internal_count=142 33 14 109 13 19
is_linear=0
shrinkage=0.1


Tree=10
num_leaves=6
num_cat=0
split_feature=18 13 13 5 12
split_gain=0.955031 1.06708 1.31437 0.859817 0.309613
threshold=11.14019317602083 9.596448315923821 9.5054296729454375 40.000000000000007 13.517323917429843
decision_type=2 2 2 10 2
left_child=1 2 -1 -2 -3
right_child=3 4 -4 -5 -6
leaf_value=0.0016237625963571986 -0.068766951967910703 0.075489855684833296 -0.17553633823819365 0.10970009524797142 -0.054165277268276718
leaf_weight=285.31046295166016 33.79824423789978 557.12376976013184 35.244818687438965 29.578258037567139 32.470878601074219
leaf_count=49 6 73 6 4 4
internal_value=0.00463807 0.00554 0.000495435 -0.00533708 0.00801239
internal_weight=973.526 910.15 320.555 63.3765 589.595
internal_count=142 132 55 10 77
is_linear=0
shrinkage=0.1


Tree=11
num_leaves=7
num_cat=1
split_feature=9 13 13 18 19 18
split_gain=1.97858 3.27733 1.28262 0.906453 0.658842 0.432562
threshold=0 10.42857400102154 8.9047548926187527 10.239357386235183 4.3990763590535966 4.8077027000315047
decision_type=1 2 2 2 2 2
left_child=1 5 4 -4 -2 -1
right_child=2 -3 3 -5 -6 -7
leaf_value=-0.23417244123234476 -0.0033937015469491932 -0.04874874954144906 0.052212055782985836 -0.029660212037269512 -0.042004283201255162 0.0077870199266163332
leaf_weight=36.281436443328857 47.717147588729858 29.458785057067871 605.58748769760132 107.80883097648621 76.288200616836548 70.384543895721436
leaf_count=7 9 6 80 15 14 11
internal_value=0.00377833 -0.00642782 0.00566527 0.00731156 -0.00281141 0.00219775
internal_weight=973.526 136.125 837.402 713.396 124.005 106.666
internal_count=142 24 118 95 23 18
cat_boundaries=0 1
cat_threshold=1
is_linear=0
shrinkage=0.1


Tree=12
num_leaves=5
num_cat=0
split_feature=17 17 0 2
split_gain=0.672014 1.0446 1.2053 0.99807
threshold=7.5000000000000009 5.5000000000000009 0.075000000000000025 56.500000000000007
decision_type=10 10 2 2
left_child=1 3 -3 -1
right_child=-2 2 -4 -5
leaf_value=0.020864739824039011 0.066757442714206458 0.12101956364461341 -0.17672333034286353 -0.029881625360815119
leaf_weight=550.47454071044922 234.80597519874573 31.283410549163818 40.695711612701416 116.26679420471191
leaf_count=82 30 4 8 18
internal_value=0.0041934 0.0023964 -0.00736666 0.00377985
internal_weight=973.526 738.72 71.9791 666.741
internal_count=142 112 12 100
is_linear=0
shrinkage=0.1


Tree=13
num_leaves=4
num_cat=0
split_feature=18 5 16
split_gain=0.643412 1.00119 1.13429
threshold=3.0656132447415705 5.5000000000000009 2.4182766886859084
decision_type=2 10 8
left_child=-1 2 -2
right_child=1 -3 -4
leaf_value=0.012861552329511286 0.0017947924570259712 0.068293896369941598 -0.047213441022556299
leaf_weight=435.49311804771423 198.74858498573303 193.47550630569458 145.80922293663025
leaf_count=63 31 25 23
internal_value=0.00601699 0.00321203 0
internal_weight=973.526 538.033 344.558
internal_count=142 79 54
is_linear=0
shrinkage=0.1


Tree=14
num_leaves=6
num_cat=0
split_feature=17 6 16 12 6
split_gain=0.750769 0.704616 1.53002 0.706852 0.0209814
threshold=2.5000000000000004 23.000000000000004 1.564008922094491 12.765246408267499 1.5000000000000002
decision_type=10 2 10 2 2
left_child=1 2 -1 -3 -2
right_child=4 3 -4 -5 -6
leaf_value=0.010486356347040371 -0.1381700492219162 0.038210632210584933 -0.029577591514889923 -0.056608994953748361 0.045932208060389036
leaf_weight=104.37856864929199 28.913995027542114 237.22350263595581 163.04657888412476 67.089992046356201 372.87379503250122
leaf_count=19 6 31 28 9 49
internal_value=0.00553011 0.00278121 -0.000646242 0.00595564 0.00888732
internal_weight=973.526 571.739 267.425 304.313 401.788
internal_count=142 87 47 40 55
is_linear=0
shrinkage=0.1


Tree=15
num_leaves=5
num_cat=0
split_feature=2 6 2 18
split_gain=0.691289 0.901689 0.403236 0.243405
threshold=26.500000000000004 12.500000000000002 70.500000000000014 6.234085745080777
decision_type=2 2 2 2
left_child=1 -1 3 -2
right_child=2 -3 -4 -5
leaf_value=-0.029380649903982183 0.013379927914408955 0.011569080265254229 -0.052560600457464371 0.04075525367039743
leaf_weight=41.264830112457275 463.18617939949036 48.053383827209473 63.346386432647705 357.67565250396729
leaf_count=9 68 7 10 48
internal_value=0.0055707 -0.00167848 0.0064345 0.00702263
internal_weight=973.526 89.3182 884.208 820.862
internal_count=142 16 126 116
is_linear=0
shrinkage=0.1


Tree=16
num_leaves=5
num_cat=0
split_feature=18 16 19 18
split_gain=0.570017 0.925985 1.07304 0.401641
threshold=5.2486557559006446 2.6545146285449732 8.2068151306870973 7.1308991502962451
decision_type=2 10 2 2
left_child=-1 3 -3 -2
right_child=1 2 -4 -5
leaf_value=0.011268240380635416 -0.029905405869139475 0.065723197518038554 -0.02138139770902785 0.038522936624761722
leaf_weight=473.44282555580139 93.508104085922241 105.58131790161133 73.583363771438599 227.41082096099854
leaf_count=69 16 15 11 31
internal_value=0.00643323 0.00351188 -0.00171494 0.00665268
internal_weight=973.526 500.084 179.165 320.919
internal_count=142 73 26 47
is_linear=0
shrinkage=0.1


Tree=17
num_leaves=5
num_cat=0
split_feature=5 2 18 12
split_gain=0.518766 1.10751 0.59798 0.276725
threshold=250.00000000000003 56.500000000000007 10.239357386235183 13.517323917429843
decision_type=8 2 2 2
left_child=3 2 -2 -1
right_child=1 -3 -4 -5
leaf_value=0.034874132028575477 0.015948159458235769 -0.052044451356838994 -0.018111574511707629 -0.036663089752203337
leaf_weight=487.63879036903381 349.6174955368042 51.678744792938232 50.519295215606689 34.07210636138916
leaf_count=69 52 9 8 4
internal_value=0.00549464 0.00250253 0.00453021 0.00771323
internal_weight=973.526 451.816 400.137 521.711
internal_count=142 69 60 73
is_linear=0
shrinkage=0.1


Tree=18
num_leaves=7
num_cat=0
split_feature=6 6 2 16 18 12
split_gain=1.00011 2.93878 1.40726 0.136754 0.278603 0.0720399
threshold=23.000000000000004 19.000000000000004 26.500000000000004 1.0728880064972428 10.239357386235183 12.326519243292747
decision_type=2 2 2 10 2 2
left_child=1 2 -1 5 -5 -2
right_child=3 -3 -4 4 -6 -7
leaf_value=-0.015468014828333324 -0.34612322925340228 -0.056609312315334004 0.0073756304790367185 0.064547303203468243 -0.10092915468921121 -0.032996780776983002
leaf_weight=52.015988349914551 42.131150722503662 54.235555410385132 305.86815166473389 427.06934022903442 67.713279724121094 24.492966175079346
leaf_count=11 7 9 51 52 8 4
internal_value=0.005041 0.000939414 0.0046812 0.00774402 0.00837916 0.00102722
internal_weight=973.526 412.12 357.884 561.407 494.783 66.6241
internal_count=142 71 62 71 60 11
is_linear=0
shrinkage=0.1


Tree=19
num_leaves=7
num_cat=0
split_feature=1 0 0 12 16 1
split_gain=0.674765 0.99053 1.79074 0.32954 0.267144 0.536806
threshold=64.500000000000014 0.085000000000000006 0.065000000000000016 9.5518439589859252 4.3959732894549957 74.500000000000014
decision_type=2 2 2 2 8 2
left_child=1 2 -1 -3 -2 -6
right_child=4 3 -4 -5 5 -7
leaf_value=-0.0021385756667505001 0.053746391910365433 -0.032920551280183272 -0.044056942086445262 0.0021950006891415176 -0.013373104445330707 -0.029997393593700041
leaf_weight=121.50675773620605 467.45019388198853 64.470011711120605 38.547691822052002 172.46023654937744 74.32154369354248 34.769996881484985
leaf_count=20 58 14 7 27 11 5
internal_value=0.00604411 0.00233418 -0.00312553 0.00636781 0.00826709 0.00199209
internal_weight=973.526 396.985 160.054 236.93 576.542 109.092
internal_count=142 68 27 41 74 16
is_linear=0
shrinkage=0.1


Tree=20
num_leaves=6
num_cat=0
split_feature=6 6 2 16 5
split_gain=0.923654 3.27713 0.860085 0.210992 0.0964218
threshold=23.000000000000004 19.000000000000004 21.500000000000004 1.0728880064972428 40.000000000000007
decision_type=2 2 2 10 10
left_child=1 2 -1 4 -2
right_child=3 -3 -4 -5 -6
leaf_value=-0.017223106469429372 -0.28862237060490642 -0.045853542975420436 0.0087003161406777503 0.09190050876817013 0.12732796862864712
leaf_weight=33.079570293426514 33.31555700302124 54.235555410385132 324.80456972122192 494.78261995315552 33.308559894561768
leaf_count=7 7 9 55 60 4
internal_value=0.00602515 0.00196552 0.00585457 0.00866314 0.00102722
internal_weight=973.526 412.12 357.884 561.407 66.6241
internal_count=142 71 62 71 11
is_linear=0
shrinkage=0.1


Tree=21
num_leaves=7
num_cat=0
split_feature=13 13 2 3 16 15
split_gain=0.886838 1.78934 1.04182 0.556693 0.553671 0.186958
threshold=9.7219781729530492 9.5054296729454375 48.500000000000007 0.40850000000000003 2.8013103044771221 12.452577182310113
decision_type=2 2 2 2 8 2
left_child=1 2 -1 4 -2 -5
right_child=3 -3 -4 5 -6 -7
leaf_value=0.022254752167386965 -0.057467166258275207 -0.081693820061514516 -0.0088712851235271343 0.065017582070264257 -0.022412299936787995 -0.015239929054683743
leaf_weight=199.7284243106842 46.617958068847656 48.269284248352051 98.128038167953491 471.32752799987793 28.603809118270874 80.851390361785889
leaf_count=35 7 9 16 60 5 10
internal_value=0.00526528 0.000796078 0.00415412 0.00747564 0 0.00854175
internal_weight=973.526 346.126 297.856 627.401 75.2218 552.179
internal_count=142 60 51 82 12 70
is_linear=0
shrinkage=0.1


Tree=22
num_leaves=7
num_cat=0
split_feature=5 18 13 18 18 15
split_gain=1.02036 1.82256 1.01234 0.76927 0.393802 0.217296
threshold=3.5000000000000004 1.0000000180025095e-35 8.1967635069818829 3.0656132447415705 10.239357386235183 11.216055033742107
decision_type=8 2 2 2 2 2
left_child=1 -1 3 -2 -4 -3
right_child=2 5 4 -5 -6 -7
leaf_value=-0.0078781023901621349 0.021241929251942838 -0.004336884486450465 0.032889453437858644 -0.33484563962913438 -0.0081036461804486464 0.009984435399784098
leaf_weight=49.69944167137146 25.925177097320557 28.500334739685059 651.78252124786377 19.123089551925659 110.21356320381165 88.282304763793945
leaf_count=9 5 5 89 5 16 13
internal_value=0.00527289 -0.00124919 0.00673689 -0.00502661 0.00767098 0.00504865
internal_weight=973.526 166.482 807.044 45.0483 761.996 116.783
internal_count=142 27 115 10 105 18
is_linear=0
shrinkage=0.1


Tree=23
num_leaves=7
num_cat=0
split_feature=5 6 14 16 2 15
split_gain=1.12043 2.03492 3.05919 0.628786 0.840948 0.0205012
threshold=3.5000000000000004 21.500000000000004 5.1645246811717085 4.3959732894549957 38.500000000000007 12.452577182310113
decision_type=8 2 2 8 2 2
left_child=1 -1 -3 5 -5 -2
right_child=3 2 -4 4 -6 -7
leaf_value=0.015799323788776225 0.031073181068425 -0.0070902921511459384 0.010926103258886145 -0.030185456917893073 0.026952073971458098 2.6347839057633967e-05
leaf_weight=93.153237581253052 523.73184990882874 34.867898941040039 38.460944652557373 30.813081741333008 139.65038228034973 112.84903717041016
leaf_count=16 73 6 5 6 21 15
internal_value=0.00560912 -0.00124919 -0.0124772 0.00714081 0.000915317 0.0085769
internal_weight=973.526 166.482 73.3288 807.044 170.463 636.581
internal_count=142 27 11 115 27 88
is_linear=0
shrinkage=0.1


Tree=24
num_leaves=5
num_cat=0
split_feature=5 0 14 15
split_gain=1.13657 1.04213 2.66777 0.264096
threshold=3.5000000000000004 0.075000000000000025 2.8617925509761908 1.0000000180025095e-35
decision_type=10 2 2 2
left_child=1 3 -3 -1
right_child=-2 2 -4 -5
leaf_value=-0.0031941668226908252 0.03182493201047961 0.00043833153026765913 -0.0063923762581787379 0.015307994576653591
leaf_weight=28.232388973236084 388.98891258239746 143.40314722061157 189.44498229026794 223.45700120925903
leaf_count=5 51 25 29 32
internal_value=0.00473683 0.00163032 -0.00179772 0.00633044
internal_weight=973.526 584.538 332.848 251.689
internal_count=142 91 54 37
is_linear=0
shrinkage=0.1


Tree=25
num_leaves=7
num_cat=0
split_feature=5 6 0 16 3 12
split_gain=1.06329 2.29405 1.94914 0.484717 0.510262 0.330615
threshold=5.5000000000000009 19.000000000000004 0.075000000000000025 4.3959732894549957 0.57500000000000007 10.112925892323513
decision_type=8 2 2 10 2 2
left_child=1 -1 -3 5 -5 -2
right_child=3 2 -4 4 -6 -7
leaf_value=0.018501953384748117 -0.01070532069532765 -0.037746157208163461 -0.005742025310213528 -0.026527673600285875 0.029183180382471276 0.029334718120093584
leaf_weight=114.45667910575867 92.839260816574097 56.026019096374512 51.367114543914795 29.658661127090454 40.483192443847656 588.69550514221191
leaf_count=19 18 8 8 5 6 78
internal_value=0.00464609 -0.000995605 -0.0108746 0.00642341 -0.000179364 0.00723124
internal_weight=973.526 221.85 107.393 751.677 70.1419 681.535
internal_count=142 35 16 107 11 96
is_linear=0
shrinkage=0.1


Tree=26
num_leaves=7
num_cat=0
split_feature=13 15 15 3 12 15
split_gain=1.71545 4.87465 5.14064 1.15163 1.92864 0.22318
threshold=9.7219781729530492 11.610581424393574 12.534358782503393 0.42500000000000004 11.977596522783886 12.452577182310113
decision_type=2 2 2 2 2 2
left_child=1 -1 -3 4 -2 -5
right_child=3 2 -4 5 -6 -7
leaf_value=0.028950934617028717 0.0017068745957456982 -0.0072403946301496146 0.017179312456935013 0.063884872559067066 -0.018763907736363675 -0.017456645945568089
leaf_weight=198.59623646736145 65.230400562286377 89.583707571029663 57.945802688598633 455.64206123352051 31.241181612014771 75.287042140960693
leaf_count=33 10 18 9 58 5 9
internal_value=0.00358274 -0.00178605 -0.014747 0.00666274 -0.00224472 0.0084855
internal_weight=973.526 346.126 147.53 627.401 96.4716 530.929
internal_count=142 60 27 82 15 67
is_linear=0
shrinkage=0.1


Tree=27
num_leaves=6
num_cat=0
split_feature=13 12 17 0 12
split_gain=1.23873 3.57243 1.18141 0.909478 0.170602
threshold=9.7219781729530492 10.833514702356636 6.5000000000000009 0.8650000000000001 13.517323917429843
decision_type=2 2 8 2 2
left_child=1 2 -1 4 -2
right_child=3 -3 -4 -5 -6
leaf_value=-0.082355050870002555 0.03370098817159093 -0.023150866777242297 0.016784369195912384 -0.030616534333328373 -0.013983160237779405
leaf_weight=71.455103397369385 528.9331488609314 39.042572975158691 235.62807035446167 52.052314519882202 46.41522216796875
leaf_count=13 68 7 40 8 6
internal_value=0.00417166 -0.000368595 0.00347286 0.00676491 0.00796482
internal_weight=973.526 346.126 307.083 627.401 575.348
internal_count=142 60 53 82 74
is_linear=0
shrinkage=0.1


Tree=28
num_leaves=6
num_cat=0
split_feature=5 3 16 13 13
split_gain=1.35327 1.98882 2.07842 0.787064 0.286616
threshold=inf 0.45850000000000007 2.3571037958663039 9.5634233555765125 12.38336776735032
decision_type=8 2 8 2 2
left_child=4 2 -2 -3 -1
right_child=1 3 -4 -5 -6
leaf_value=0.022203343731959188 -0.2284299957504044 -0.0051967194009639173 -0.013825863529394456 0.030097573440836373 -0.014123565669480066
leaf_weight=517.03333878517151 32.313020706176758 105.69301867485046 28.203864336013794 251.84553480148315 38.437654972076416
leaf_count=73 6 19 6 33 5
internal_value=0.00536155 0.000727553 -0.0133001 0.00394553 0.0085289
internal_weight=973.526 418.055 60.5169 357.539 555.471
internal_count=142 64 12 52 78
is_linear=0
shrinkage=0.1


Tree=29
num_leaves=7
num_cat=0
split_feature=6 5 3 17 14 12
split_gain=1.67741 1.70631 2.83213 0.580612 0.170618 0.649355
threshold=23.000000000000004 7.5000000000000009 0.45850000000000007 7.5000000000000009 3.2951505240983434 12.765246408267499
decision_type=2 8 2 10 2 2
left_child=1 3 -3 -1 5 -2
right_child=4 2 -4 -5 -6 -7
leaf_value=0.010488168598043454 0.0068095470266936855 -0.017059581033762861 -0.011118073514256845 -0.00062914036602368384 0.051171832636228078 -0.020130088773711613
leaf_weight=162.7024393081665 130.06041622161865 48.405873537063599 171.33036923408508 29.681013345718384 377.53958082199097 53.806739807128906
leaf_count=26 19 10 30 5 45 7
internal_value=0.00427404 -0.000361151 -0.00633356 0.0059436 0.00774402 0.00356621
internal_weight=973.526 412.12 219.736 192.383 561.407 183.867
internal_count=142 71 40 31 71 26
is_linear=0
shrinkage=0.1


Tree=30
num_leaves=7
num_cat=1
split_feature=16 14 5 9 5 3
split_gain=0.590835 1.4397 0.559406 0.377483 1.17709 0.559519
threshold=2.6545146285449732 3.5694334999727624 40.000000000000007 0 3.5000000000000004 0.72500000000000009
decision_type=10 2 8 1 8 2
left_child=3 -2 -3 4 -1 -5
right_child=1 2 -4 5 -6 -7
leaf_value=-0.00066494020741494355 -0.015545626773861671 0.043820246614412799 -0.012525029211621347 0.02617484093737318 0.00035193548793216158 -0.0020866296409862263
leaf_weight=25.451301574707031 70.08049201965332 162.26655769348145 104.39230179786682 472.14382171630859 110.67346382141113 28.51849365234375
leaf_count=5 10 21 16 66 19 5
internal_value=0.00524182 0.00135732 0.00498599 0.00703983 0.00120677 0.00832644
internal_weight=973.526 336.739 266.659 636.787 136.125 500.662
internal_count=142 47 37 95 24 71
cat_boundaries=0 1
cat_threshold=1
is_linear=0
shrinkage=0.1


Tree=31
num_leaves=7
num_cat=0
split_feature=5 6 14 3 12 16
split_gain=0.958951 2.03492 3.05919 0.441581 1.41176 0.70932
threshold=3.5000000000000004 21.500000000000004 5.1645246811717085 0.6585000000000002 10.91251217552629 4.3959732894549957
decision_type=8 2 2 2 2 10
left_child=1 -1 -3 5 -5 -2
right_child=3 2 -4 4 -6 -7
leaf_value=0.0040902904872085312 0.021068554150990671 -0.001991233188609698 0.0059263351346580785 -0.10265886701124161 0.027374543019276013 -0.02071763067437855
leaf_weight=93.153237581253052 614.48165106773376 34.867898941040039 38.460944652557373 37.53138542175293 91.803561687469482 63.227752923965454
leaf_count=16 86 6 5 7 12 10
internal_value=0.00505863 -0.00124919 -0.0124772 0.00647951 0.000225748 0.00748897
internal_weight=973.526 166.482 73.3288 807.044 129.335 677.709
internal_count=142 27 11 115 19 96
is_linear=0
shrinkage=0.1


Tree=32
num_leaves=7
num_cat=0
split_feature=3 6 6 5 1 15
split_gain=1.63773 1.36444 1.36556 0.577725 0.935437 0.160309
threshold=0.47500000000000003 45.500000000000007 21.500000000000004 5.5000000000000009 63.500000000000007 12.043494422046175
decision_type=2 2 2 8 2 2
left_child=1 2 -1 4 -2 -5
right_child=3 -3 -4 5 -6 -7
leaf_value=-0.0011211135972238188 0.010777360401582997 0.084031822455547633 -0.18713736159511818 0.02038375850368622 -0.0023905931792308726 0.014411253954339618
leaf_weight=103.29023313522339 86.873900175094604 65.216396331787109 29.399213075637817 434.0866425037384 77.629968166351318 177.03007888793945
leaf_count=19 14 8 6 61 11 23
internal_value=0.0041998 -0.00335033 -0.00905249 0.00628775 0.000305071 0.00767906
internal_weight=973.526 197.906 132.689 775.621 164.504 611.117
internal_count=142 33 25 109 25 84
is_linear=0
shrinkage=0.1


Tree=33
num_leaves=7
num_cat=0
split_feature=2 2 3 5 3 2
split_gain=1.06585 3.19046 0.894058 0.552368 1.21132 0.476797
threshold=38.500000000000007 35.000000000000007 0.47500000000000003 5.5000000000000009 0.60850000000000015 43.500000000000007
decision_type=2 2 2 8 2 2
left_child=1 2 -1 4 -2 -5
right_child=3 -3 -4 5 -6 -7
leaf_value=-0.0016091049640215795 0.010869654834569562 -0.017321160214830034 0.021851772951277625 -0.037288321854615336 -0.0015530505518255744 0.019096979551595786
leaf_weight=32.381918430328369 141.60275506973267 29.26596212387085 141.15163159370422 76.117123126983643 38.001492023468018 515.00554990768433
leaf_count=7 21 5 22 13 6 68
internal_value=0.00504175 -0.0009233 0.00450679 0.00672144 0.00103851 0.00819399
internal_weight=973.526 202.8 173.534 770.727 179.604 591.123
internal_count=142 34 29 108 27 81
is_linear=0
shrinkage=0.1


Tree=34
num_leaves=5
num_cat=0
split_feature=16 14 14 13
split_gain=1.15143 1.24649 2.1168 0.516609
threshold=2.6545146285449732 3.5694334999727624 3.1984648276080736 9.8238953050816793
decision_type=8 2 2 2
left_child=-1 2 -2 -3
right_child=1 3 -4 -5
leaf_value=0.014397786949131337 -0.0013458001792154969 -0.018276450145699879 -0.0089400752899394757 0.033636618765481463
leaf_weight=531.31683015823364 137.93975973129272 67.865068912506104 37.610982894897461 198.79379057884216
leaf_count=77 22 11 6 26
internal_value=0.00615847 0.00195893 -0.00399046 0.00622962
internal_weight=973.526 442.21 175.551 266.659
internal_count=142 65 28 37
is_linear=0
shrinkage=0.1


Tree=35
num_leaves=7
num_cat=0
split_feature=2 1 16 5 16 0
split_gain=0.943228 2.14256 2.33368 0.491772 1.00752 0.0444739
threshold=43.500000000000007 60.500000000000007 2.7534452469724315 3.5000000000000004 3.0402618552238394 0.29000000000000009
decision_type=2 2 8 8 8 2
left_child=1 5 -3 4 -2 -1
right_child=3 2 -4 -5 -6 -7
leaf_value=0.0057556094247966233 -0.002878404640758381 -0.016686455234602601 -0.013761399178777013 0.017759438551622181 -0.0011126490154248271 -0.12662190518327771
leaf_weight=161.2703742980957 82.642109870910645 79.625409603118896 44.558284759521484 550.09585475921631 31.703258037567139 23.631140947341919
leaf_count=27 12 11 8 73 5 6
internal_value=0.00596304 0.000933698 -0.00813153 0.00806084 0.000865038 0.00770956
internal_weight=973.526 309.085 124.184 664.441 114.345 184.902
internal_count=142 52 19 90 17 33
is_linear=0
shrinkage=0.1


Tree=36
num_leaves=5
num_cat=0
split_feature=16 14 5 12
split_gain=1.34439 1.03676 2.4076 0.579767
threshold=2.6545146285449732 3.5694334999727624 7.5000000000000009 11.082963576434247
decision_type=8 2 8 2
left_child=-1 2 -2 -3
right_child=1 3 -4 -5
leaf_value=0.015216373140575952 -0.0016060910201968427 -0.016610288685022331 -0.015862812116150076 0.034874044350681331
leaf_weight=531.31683015823364 48.934199333190918 89.582838535308838 126.61654329299927 177.07602095603943
leaf_count=77 9 14 19 23
internal_value=0.00593412 0.00147669 -0.00391982 0.00540385
internal_weight=973.526 442.21 175.551 266.659
internal_count=142 65 28 37
is_linear=0
shrinkage=0.1


Tree=37
num_leaves=7
num_cat=0
split_feature=14 14 15 19 19 19
split_gain=1.06021 2.01586 3.74492 0.618167 0.011008 0.126802
threshold=3.5694334999727624 3.0677824455408698 11.712620505020647 1.0000000180025095e-35 3.7012257604091228 1.8444397270569681
decision_type=2 2 2 2 2 2
left_child=1 3 -3 -1 5 -2
right_child=4 2 -4 -5 -6 -7
leaf_value=-0.0015626126621014623 0.028945053097513541 -0.011572565593731862 -0.0082399700667767119 0.013709117454925422 0.033317546422878382 -0.010724230392397116
leaf_weight=57.936561822891235 54.293777942657471 71.611088275909424 65.991354465484619 266.24596333503723 415.72442126274109 41.723265171051025
leaf_count=11 7 10 10 43 55 6
internal_value=0.00546603 0.00160719 -0.00755921 0.00600166 0.00856868 0.00343983
internal_weight=973.526 461.785 137.602 324.183 511.741 96.017
internal_count=142 74 20 54 68 13
is_linear=0
shrinkage=0.1


Tree=38
num_leaves=5
num_cat=0
split_feature=13 16 15 2
split_gain=2.11701 0.762665 1.06116 0.215074
threshold=12.38336776735032 2.6545146285449732 11.908482903551588 56.500000000000007
decision_type=2 8 2 2
left_child=1 3 -3 -1
right_child=-2 2 -4 -5
leaf_value=0.0084362420905726102 -0.00083380450644099282 0.010476213948228312 -0.0037399393553138728 -0.0032993713690926334
leaf_weight=411.93664050102234 53.285033702850342 274.80138993263245 163.63562345504761 69.86774468421936
leaf_count=61 7 41 23 10
internal_value=0.00414054 0.00541873 0.00195411 0.00816868
internal_weight=973.526 920.241 438.437 481.804
internal_count=142 135 64 71
is_linear=0
shrinkage=0.1


Tree=39
num_leaves=4
num_cat=0
split_feature=13 16 0
split_gain=2.10909 1.54874 1.34298
threshold=12.38336776735032 2.6545146285449732 0.055000000000000007
decision_type=2 8 2
left_child=1 -1 -3
right_child=-2 2 -4
leaf_value=0.011296450156646451 -0.00075042405579688228 0.019530595888924116 -0.0038720410982056837
leaf_weight=481.8043851852417 53.285033702850342 185.94954252243042 252.48747086524963
leaf_count=71 7 26 38
internal_value=0.00410932 0.00538574 0.000754421
internal_weight=973.526 920.241 438.437
internal_count=142 135 64
is_linear=0
shrinkage=0.1


Tree=40
num_leaves=5
num_cat=0
split_feature=13 8 0 1
split_gain=1.98876 0.608552 1.47383 0.348371
threshold=12.38336776735032 1.0000000180025095e-35 0.055000000000000007 63.500000000000007
decision_type=2 2 2 2
left_child=1 2 -1 -3
right_child=-2 3 -4 -5
leaf_value=0.032615206546657241 -0.00067538165021720946 -0.0039091309588032948 -0.0022751249655059863 0.01948731924973833
leaf_weight=186.48051309585571 53.285033702850342 109.44932866096497 288.26101064682007 336.05054616928101
leaf_count=26 7 19 47 43
internal_value=0.0036298 0.00487904 0.00196298 0.00755384
internal_weight=973.526 920.241 474.742 445.5
internal_count=142 135 73 62
is_linear=0
shrinkage=0.1


Tree=41
num_leaves=5
num_cat=0
split_feature=13 3 2 16
split_gain=1.87628 1.10123 2.61916 0.275871
threshold=12.38336776735032 0.42500000000000004 41.500000000000007 2.6545146285449732
decision_type=2 2 2 8
left_child=1 2 -1 -3
right_child=-2 3 -4 -5
leaf_value=-0.0019673855978139978 -0.00060784348519546838 0.010066829910200525 0.005158467846244949 0.0086921562092543547
leaf_weight=29.521980762481689 53.285033702850342 405.97196340560913 98.486430406570435 386.2610239982605
leaf_count=6 7 59 15 55
internal_value=0.00317191 0.0043952 -0.00334582 0.00582069
internal_weight=973.526 920.241 128.008 792.233
internal_count=142 135 21 114
is_linear=0
shrinkage=0.1


Tree=42
num_leaves=6
num_cat=0
split_feature=14 16 15 19 19
split_gain=1.49314 1.92953 2.03203 0.634055 0.172249
threshold=4.2483931908192885 2.6545146285449732 11.733252093939191 1.8444397270569681 3.7012257604091228
decision_type=2 8 2 2 2
left_child=1 3 -3 -1 -2
right_child=4 2 -4 -5 -6
leaf_value=-0.0023129258128915088 -0.035907580886284672 -0.00060974129836482917 -0.0043686791990908865 0.0070651508509373163 0.03319753642279042
leaf_weight=74.338964700698853 63.639181613922119 176.8374559879303 72.545430660247803 277.66931796073914 308.49608135223389
leaf_count=11 9 28 11 43 40
internal_value=0.00325671 0 -0.00632651 0.00478381 0.00805911
internal_weight=973.526 601.391 249.383 352.008 372.135
internal_count=142 93 39 54 49
is_linear=0
shrinkage=0.1


Tree=43
num_leaves=7
num_cat=0
split_feature=15 12 3 18 12 12
split_gain=1.151 4.23106 5.38448 1.48229 1.41876 2.03709
threshold=11.610581424393574 11.164307992221049 0.60850000000000015 10.239357386235183 12.138868247386322 12.488752440071016
decision_type=2 2 2 2 2 2
left_child=4 2 -2 -3 -1 -6
right_child=1 3 -4 -5 5 -7
leaf_value=0.013002757785468957 -0.0020740074331337065 0.022796970663819943 -0.0033102724653988782 -0.0037032867838888706 -0.0034555571324324853 -0.045573557406007
leaf_weight=352.39225602149963 159.57170271873474 267.81505632400513 39.526381492614746 45.017938613891602 21.432169198989868 87.770927906036377
leaf_count=55 27 33 7 6 4 10
internal_value=0.00214391 -0.000958523 -0.0118727 0.00598322 0.00568922 -0.00320972
internal_weight=973.526 511.931 199.098 312.833 461.595 109.203
internal_count=142 73 34 39 69 14
is_linear=0
shrinkage=0.1


Tree=44
num_leaves=7
num_cat=0
split_feature=15 12 13 14 16 12
split_gain=1.10922 2.06199 3.89186 1.0018 0.737941 1.64257
threshold=11.712620505020647 11.164307992221049 9.3940281715605547 3.2951505240983434 4.5592112315735855 12.138868247386322
decision_type=2 2 2 2 8 2
left_child=4 2 -2 -3 -1 -6
right_child=1 3 -4 -5 5 -7
leaf_value=0.0081829247068869165 -0.0024595882578412717 -0.0051835240094757311 -0.0077828181578776913 0.053429267206361312 0.011552603353336369 -0.0041297064453509995
leaf_weight=369.33497834205627 109.86582970619202 61.852460861206055 74.480438232421875 207.90185976028442 114.42837715148926 35.662488222122192
leaf_count=53 19 8 12 25 19 6
internal_value=0.00359954 0 -0.00773126 0.00538604 0.00666536 1.24441e-05
internal_weight=973.526 454.101 184.346 269.754 519.426 150.091
internal_count=142 64 31 33 78 25
is_linear=0
shrinkage=0.1


Tree=45
num_leaves=7
num_cat=0
split_feature=6 14 12 16 18 18
split_gain=1.21006 1.67243 1.89532 0.278813 0.430669 0.11812
threshold=32.000000000000007 3.0677824455408698 11.164307992221049 1.0728880064972428 10.239357386235183 10.239357386235183
decision_type=2 2 2 10 2 2
left_child=1 -1 -3 5 -5 -2
right_child=3 2 -4 4 -6 -7
leaf_value=0.0024504506384502452 -0.22912587642093937 -0.0017547065484751689 -0.015984157260116962 0.011230552185927001 -0.0028146057045524311 5.7309898290558436e-05
leaf_weight=175.8303370475769 28.290205478668213 186.14992237091064 112.39829993247986 390.94877910614014 50.926115989685059 28.982772350311279
leaf_count=33 6 30 16 47 6 4
internal_value=0.00402929 0.000153108 -0.00412275 0.00737269 0.00819349 0
internal_weight=973.526 474.379 298.548 499.148 441.875 57.273
internal_count=142 79 46 63 53 10
is_linear=0
shrinkage=0.1


Tree=46
num_leaves=7
num_cat=0
split_feature=12 3 1 12 3 18
split_gain=1.47896 2.40189 3.76981 2.40762 0.70882 0.0450751
threshold=11.164307992221049 0.60850000000000015 58.500000000000007 10.833514702356636 0.40850000000000003 10.239357386235183
decision_type=2 2 2 2 2 2
left_child=1 3 -3 -1 -2 -6
right_child=4 2 -4 -5 5 -7
leaf_value=0.0036840631814050377 -0.0016611923813655259 -0.0067961649574948477 -0.0020254927482237228 -0.0023948820832184019 0.026371234640745742 -0.0025486999905181664
leaf_weight=252.37202644348145 56.583192110061646 60.2748122215271 56.666590213775635 80.983880519866943 363.35145664215088 103.29447412490845
leaf_count=42 9 11 9 13 45 13
internal_value=0.00346182 -0.000549876 -0.0119463 0.0036149 0.00699156 0.00828545
internal_weight=973.526 450.297 116.941 333.356 523.229 466.646
internal_count=142 75 20 55 67 58
is_linear=0
shrinkage=0.1


Tree=47
num_leaves=7
num_cat=0
split_feature=13 12 3 0 8 18
split_gain=1.77703 3.28235 1.70243 0.71886 0.692171 0.161366
threshold=9.7219781729530492 10.833514702356636 0.60850000000000015 0.64000000000000012 1.0000000180025095e-35 10.239357386235183
decision_type=2 2 2 2 2 2
left_child=1 2 -1 5 -5 -2
right_child=3 -3 -4 4 -6 -7
leaf_value=0.00066598479026846048 0.01862883699153086 -0.0045409129212813596 -0.0019919189265926425 -0.001822943473401395 0.0034895141583273673 -0.0030332741857245879
leaf_weight=230.20796966552734 455.71627378463745 39.042572975158691 76.875204086303711 37.405287981033325 49.861577033996582 84.41754674911499
leaf_count=39 59 7 14 6 6 11
internal_value=0.0040564 -0.00141688 0.00229944 0.00718087 -0.000168362 0.00851039
internal_weight=973.526 346.126 307.083 627.401 87.2669 540.134
internal_count=142 60 53 82 12 70
is_linear=0
shrinkage=0.1


Tree=48
num_leaves=5
num_cat=0
split_feature=5 3 0 16
split_gain=1.41408 1.39732 3.59309 1.86288
threshold=5.5000000000000009 0.60850000000000015 0.075000000000000025 2.8013103044771221
decision_type=10 2 2 8
left_child=1 3 -3 -1
right_child=-2 2 -4 -5
leaf_value=-0.00037636356470845957 0.010846399743122547 0.0017322108944111455 -0.0019716053629051074 -0.001855196443212582
leaf_weight=324.92630195617676 333.62118101119995 72.571595191955566 71.383159160614014 171.02419495582581
leaf_count=50 43 11 12 26
internal_value=0.0035724 0.000579441 -0.00729775 0.00325395
internal_weight=973.526 639.905 143.955 495.95
internal_count=142 99 23 76
is_linear=0
shrinkage=0.1


Tree=49
num_leaves=7
num_cat=0
split_feature=12 15 12 3 12 15
split_gain=1.39217 3.21401 5.90736 0.70882 0.561255 0.347829
threshold=11.164307992221049 11.610581424393574 10.328381586872046 0.40850000000000003 8.3413938379157866 12.452577182310113
decision_type=2 2 2 2 2 2
left_child=1 4 -3 -2 -1 -5
right_child=3 2 -4 5 -6 -7
leaf_value=-0.062892887348158663 -0.0020611651908511246 -0.0007113059425264954 -0.003962796737017796 0.0221013998080343 0.0066582402026247687 -0.17516554513237637
leaf_weight=37.008011817932129 56.583192110061646 99.047973394393921 100.05011081695557 406.74969148635864 214.19121336936951 59.896239280700684
leaf_count=8 9 18 16 51 33 7
internal_value=0.0035724 -0.000316276 -0.00950404 0.00699156 0.00676098 0.00828545
internal_weight=973.526 450.297 199.098 523.229 251.199 466.646
internal_count=142 75 34 67 41 58
is_linear=0
shrinkage=0.1


Tree=50
num_leaves=6
num_cat=0
split_feature=2 3 13 2 16
split_gain=1.62449 2.91302 1.69101 0.979099 0.244195
threshold=41.500000000000007 0.47500000000000003 12.38336776735032 35.000000000000007 4.5592112315735855
decision_type=2 2 2 2 10
left_child=1 -1 4 -3 -2
right_child=2 3 -4 -5 -6
leaf_value=-0.0013380155780300829 0.0084548957904800274 0.0097250459315940518 -0.0023879721725704327 -0.037883680147368606 -0.093214309995364189
leaf_weight=43.469413280487061 634.86705374717712 141.15163159370422 53.285033702850342 59.653453826904297 41.099846124649048
leaf_count=9 88 22 7 10 6
internal_value=0.00513496 -0.00150427 0.00747313 0.00365158 0.00891303
internal_weight=973.526 244.274 729.252 200.805 675.967
internal_count=142 41 101 32 94
is_linear=0
shrinkage=0.1


Tree=51
num_leaves=5
num_cat=0
split_feature=13 13 13 14
split_gain=1.12604 0.982704 2.10894 0.332428
threshold=12.38336776735032 9.9175616311682102 9.5634233555765125 1.4451858789480825
decision_type=2 2 2 2
left_child=1 2 -1 -3
right_child=-2 3 -4 -5
leaf_value=0.0022443162659550402 -0.0021491749553133742 -0.011780844702830419 -0.0014697515336440095 0.023855924312857657
leaf_weight=318.40950679779053 53.285033702850342 46.89381742477417 90.490005970001221 464.44806838035583
leaf_count=54 7 7 15 59
internal_value=0.00479122 0.00570505 0.00161833 0.0086009
internal_weight=973.526 920.241 408.9 511.342
internal_count=142 135 69 66
is_linear=0
shrinkage=0.1


Tree=52
num_leaves=7
num_cat=0
split_feature=15 15 18 12 2 16
split_gain=1.13337 3.32704 2.21629 0.892917 0.170301 0.104059
threshold=11.610581424393574 11.763951305867939 6.0059100989341276 11.164307992221049 26.500000000000004 1.9674980906752644
decision_type=2 2 2 2 2 10
left_child=4 2 -2 -3 5 -1
right_child=1 3 -4 -5 -6 -7
leaf_value=-2.6129549944053922e-05 -0.15961753036367957 -0.00064132664694344609 -0.051119929792432489 0.011052580177593911 0.0064625819543863601 0.0081614772539771781
leaf_weight=27.304477691650391 43.765005111694336 167.10384392738342 55.935381412506104 245.12684869766235 401.6226224899292 32.668252944946289
leaf_count=6 8 28 7 30 58 5
internal_value=0.00458333 0.00103475 -0.0135314 0.00525212 0.00810481 0.000704348
internal_weight=973.526 511.931 99.7004 412.231 461.595 59.9727
internal_count=142 73 15 58 69 11
is_linear=0
shrinkage=0.1


Tree=53
num_leaves=6
num_cat=0
split_feature=3 2 5 3 12
split_gain=0.33204 1.37704 0.405793 1.38894 0.0929376
threshold=0.42500000000000004 41.500000000000007 5.5000000000000009 0.60850000000000015 9.1952126959881877
decision_type=2 2 8 2 2
left_child=1 -1 3 -2 -4
right_child=2 -3 4 -5 -6
leaf_value=-0.0008693127011212276 0.0030784077090613769 0.0050667151494287709 -0.055603825551760966 -0.00052936153858622608 0.0070027402743784552
leaf_weight=29.521980762481689 131.44425225257874 98.486430406570435 41.591152191162109 48.585596084594727 623.8970205783844
leaf_count=6 20 15 9 8 84
internal_value=0.00721709 0.00121784 0.00796069 0.00252239 0.00916948
internal_weight=973.526 128.008 845.518 180.03 665.488
internal_count=142 21 121 28 93
is_linear=0
shrinkage=0.1


Tree=54
num_leaves=4
num_cat=0
split_feature=6 13 13
split_gain=0.485387 1.05285 1.70084
threshold=32.000000000000007 9.5054296729454375 9.9175616311682102
decision_type=2 2 2
left_child=1 -1 -3
right_child=-2 2 -4
leaf_value=0.0058913444892699975 0.020082472012197178 -0.00084983349034995111 0.0047633206150253585
leaf_weight=217.69675827026367 499.14787292480469 84.825376987457275 171.85642409324646
leaf_count=38 63 15 26
internal_value=0.00687748 0.0039271 -0.000128274
internal_weight=973.526 474.379 256.682
internal_count=142 79 41
is_linear=0
shrinkage=0.1


Tree=55
num_leaves=4
num_cat=0
split_feature=6 13 12
split_gain=0.767005 1.44377 1.89546
threshold=32.000000000000007 9.5054296729454375 11.164307992221049
decision_type=2 2 2
left_child=1 -1 -3
right_child=-2 2 -4
leaf_value=0.0053022100403429884 0.018074224810977493 -0.0011094594050723124 0.0032086148406776415
leaf_weight=217.69675827026367 499.14787292480469 116.37844038009644 140.3033607006073
leaf_count=38 63 20 21
internal_value=0.00643119 0.00303022 -0.00173083
internal_weight=973.526 474.379 256.682
internal_count=142 79 41
is_linear=0
shrinkage=0.1


Tree=56
num_leaves=7
num_cat=0
split_feature=15 19 15 13 16 6
split_gain=1.22856 2.0515 1.5853 0.660393 0.637984 0.481392
threshold=11.850361930060059 6.1321424741392567 12.771406127715119 9.9175616311682102 1.0728880064972428 4.5000000000000009
decision_type=2 2 2 2 8 2
left_child=4 2 -2 -3 -1 -6
right_child=1 3 -4 -5 5 -7
leaf_value=-0.1658962352227499 -0.00094243479159757863 -0.00058650979675189637 0.035255893407057835 0.0072371234496248762 -0.00067469964965413774 0.012455136492140402
leaf_weight=33.132591724395752 100.89769434928894 62.624336242675781 37.910006046295166 170.02753448486328 123.1116316318512 445.82263779640198
leaf_count=7 15 11 5 21 23 60
internal_value=0.0042582 -2.78004e-05 -0.00916937 0.00532466 0.00697918 0.00783232
internal_weight=973.526 371.46 138.808 232.652 602.067 568.934
internal_count=142 52 20 32 90 83
is_linear=0
shrinkage=0.1


Tree=57
num_leaves=6
num_cat=0
split_feature=19 19 5 13 12
split_gain=1.46205 1.99856 1.06399 0.347817 0.815781
threshold=6.2730727674356439 5.6698274123883454 22.500000000000004 9.7219781729530492 10.626883322296949
decision_type=2 2 8 2 2
left_child=1 2 -1 4 -2
right_child=3 -3 -4 -5 -6
leaf_value=0.0060867004750148205 0.00047672003366671344 -0.11805777327422158 -0.00048425694210953808 0.011960785306005993 -0.00067956474044314312
leaf_weight=166.21778512001038 85.007816314697266 49.096591234207153 249.41393995285034 387.80209612846375 35.988203525543213
leaf_count=27 14 9 37 49 6
internal_value=0.00416963 0 0.00257705 0.00776619 0.00162221
internal_weight=973.526 464.728 415.632 508.798 120.996
internal_count=142 73 64 69 20
is_linear=0
shrinkage=0.1


Tree=58
num_leaves=7
num_cat=0
split_feature=2 3 2 19 14 1
split_gain=1.60539 1.34562 0.863531 0.593615 0.298481 0.0631936
threshold=38.500000000000007 0.47500000000000003 31.500000000000004 1.0000000180025095e-35 3.0201273556387074 58.500000000000007
decision_type=2 2 2 2 2 2
left_child=1 -1 -3 4 -2 -5
right_child=3 2 -4 5 -6 -7
leaf_value=-0.00061788321123144039 0.0067897953564378449 0.0065180853257906296 -0.00078203651526811415 -0.073346117523425597 -5.7880113016217651e-06 0.01026620285659078
leaf_weight=37.571573257446289 35.84021520614624 110.7621328830719 54.465806007385254 45.517804622650146 31.065040588378906 658.30385971069336
leaf_count=8 6 18 8 10 4 88
internal_value=0.0063228 -0.00109147 0.00270294 0.00837843 0 0.00921346
internal_weight=973.526 202.8 165.228 770.727 66.9053 703.822
internal_count=142 34 26 108 10 98
is_linear=0
shrinkage=0.1


Tree=59
num_leaves=5
num_cat=0
split_feature=19 5 1 0
split_gain=0.855728 0.963558 0.99113 0.195526
threshold=4.6143356643304534 22.500000000000004 64.500000000000014 1.0000000180025095e-35
decision_type=2 8 2 2
left_child=1 -1 -3 -2
right_child=3 2 -4 -5
leaf_value=0.0011466363153857723 -0.018045348600156524 -0.00074987248271419604 -0.0047502425064440759 0.010008413666501246
leaf_weight=125.72611117362976 33.972090721130371 102.98389911651611 126.52831411361694 584.31601715087891
leaf_count=21 6 18 16 81
internal_value=0.00575763 0.00138235 -0.00215841 0.0079927
internal_weight=973.526 355.238 229.512 618.288
internal_count=142 55 34 87
is_linear=0
shrinkage=0.1


Tree=60
num_leaves=5
num_cat=0
split_feature=13 12 16 16
split_gain=0.753732 2.58681 0.496719 0.30246
threshold=9.9175616311682102 11.022562873623281 1.6685433709773492 1.0000000180025095e-35
decision_type=2 2 8 10
left_child=1 2 -1 -2
right_child=3 -3 -4 -5
leaf_value=-0.0025431227218284305 -0.0045652821376621052 -0.001992876514197839 0.010941524721840316 0.011481585616963082
leaf_weight=121.70120048522949 50.666406154632568 45.632744312286377 241.56556797027588 513.96051335334778
leaf_count=23 8 7 39 65
internal_value=0.00632256 0.00251517 0.00574396 0.00872842
internal_weight=973.526 408.9 363.267 564.627
internal_count=142 69 62 73
is_linear=0
shrinkage=0.1


Tree=61
num_leaves=7
num_cat=0
split_feature=2 0 15 0 15 16
split_gain=0.746287 2.78952 2.63782 0.564896 0.501816 0.273311
threshold=41.500000000000007 0.12500000000000003 11.811003967575823 0.025000000000000005 12.452577182310113 4.5592112315735855
decision_type=2 2 2 2 2 10
left_child=1 4 -3 -2 -1 -5
right_child=3 2 -4 5 -6 -7
leaf_value=0.0017820736323254428 -0.00067834352122337911 -0.034431886191519857 0.0048458575994915877 0.0093484871365752294 -0.00010771974728180923 -0.00099006238128072086
leaf_weight=164.98273658752441 56.42484712600708 20.837023735046387 23.698854207992554 639.92317748069763 34.755884170532227 32.903908967971802
leaf_count=26 7 5 5 89 5 5
internal_value=0.00571029 0.000422713 -0.0174979 0.00728941 0.00610248 0.00809764
internal_weight=973.526 244.274 44.5359 729.252 199.739 672.827
internal_count=142 41 10 101 31 94
is_linear=0
shrinkage=0.1


Tree=62
num_leaves=5
num_cat=0
split_feature=16 15 19 2
split_gain=1.04408 0.901938 1.67937 0.152802
threshold=2.6545146285449732 11.908482903551588 5.3031068539381989 50.500000000000007
decision_type=10 2 2 2
left_child=-1 3 -3 -2
right_child=1 2 -4 -5
leaf_value=0.0089898767118204888 -0.0029342465909521429 -0.00061050916910101451 3.7000039926583928e-05 -0.042447667698167879
leaf_weight=636.78708076477051 133.54227352142334 52.371319770812988 111.26430368423462 39.56145453453064
leaf_count=95 18 8 15 6
internal_value=0.00676128 0.00173503 -0.00302549 0.0066003
internal_weight=973.526 336.739 163.636 173.104
internal_count=142 47 23 24
is_linear=0
shrinkage=0.1


Tree=63
num_leaves=6
num_cat=0
split_feature=16 19 5 17 5
split_gain=0.504707 0.856731 1.42423 0.837321 0.371965
threshold=2.6545146285449732 4.7994991808839842 14.000000000000002 3.5000000000000004 5.5000000000000009
decision_type=10 2 8 8 8
left_child=3 2 -2 -1 -3
right_child=1 4 -4 -5 -6
leaf_value=-0.10530106089935204 0.00074517027718785662 -0.0027321375804283399 -0.00054945825219094864 0.0072456905637198286 0.0013233852418596788
leaf_weight=35.915700435638428 56.927750110626221 48.762475490570068 60.999958515167236 600.87138032913208 170.04916739463806
leaf_count=6 8 7 9 89 23
internal_value=0.00657229 0.00273435 -0.00327095 0.0083045 0.0063925
internal_weight=973.526 336.739 117.928 636.787 218.812
internal_count=142 47 17 95 30
is_linear=0
shrinkage=0.1


Tree=64
num_leaves=4
num_cat=0
split_feature=17 16 18
split_gain=0.273384 0.918627 1.37128
threshold=7.5000000000000009 2.6545146285449732 5.2486557559006446
decision_type=10 10 2
left_child=-1 -2 -3
right_child=1 2 -4
leaf_value=0.0051918680487864008 -0.0026885493184331446 0.052565508994364324 -0.0024589238223855503
leaf_weight=738.72045707702637 152.09395623207092 48.412055015563965 34.29996395111084
leaf_count=112 19 6 5
internal_value=0.00814426 0.00382111 -0.00338127
internal_weight=973.526 234.806 82.712
internal_count=142 30 11
is_linear=0
shrinkage=0.1


Tree=65
num_leaves=4
num_cat=0
split_feature=16 15 2
split_gain=1.00736 1.67434 1.6075
threshold=2.6545146285449732 11.908482903551588 48.500000000000007
decision_type=10 2 2
left_child=-1 -2 -3
right_child=1 2 -4
leaf_value=0.0066151028079132358 -0.0018538734200891291 -0.0024774178364166326 0.010350826616555599
leaf_weight=636.78708076477051 173.10372805595398 104.67769861221313 58.957924842834473
leaf_count=95 24 15 8
internal_value=0.00679829 0.00183811 -0.00476656
internal_weight=973.526 336.739 163.636
internal_count=142 47 23
is_linear=0
shrinkage=0.1


Tree=66
num_leaves=5
num_cat=0
split_feature=16 13 12 17
split_gain=1.00736 0.883962 3.36728 0.717374
threshold=2.6545146285449732 9.9175616311682102 10.833514702356636 9.5000000000000018
decision_type=10 2 2 10
left_child=-1 2 -2 -3
right_child=1 3 -4 -5
leaf_value=0.0059535925271219023 0.002199072479547082 0.004511219605291425 -0.0019652896565053092 -8.7826109158584136e-07
leaf_weight=636.78708076477051 80.001873016357422 175.61907076835632 41.446462154388428 39.671945571899414
leaf_count=95 12 23 7 5
internal_value=0.00679829 0.00183811 -0.00413068 0.0056951
internal_weight=973.526 336.739 121.448 215.291
internal_count=142 47 19 28
is_linear=0
shrinkage=0.1


Tree=67
num_leaves=5
num_cat=0
split_feature=2 3 17 0
split_gain=1.10963 1.07894 2.10617 0.877828
threshold=49.500000000000007 0.60850000000000015 11.500000000000002 0.055000000000000007
decision_type=2 2 8 2
left_child=1 3 -3 -1
right_child=-2 2 -4 -5
leaf_value=0.0089627258209373818 0.005122556403734848 -0.024846891716589842 -0.00079330655791144038 -3.7114007781720361e-05
leaf_weight=221.60398530960083 365.97623348236084 58.042105674743652 101.62997817993164 226.27412962913513
leaf_count=31 49 10 15 37
internal_value=0.0049352 0.00198149 -0.00441282 0.00456603
internal_weight=973.526 607.55 159.672 447.878
internal_count=142 93 25 68
is_linear=0
shrinkage=0.1


Tree=68
num_leaves=4
num_cat=0
split_feature=2 5 2
split_gain=1.90321 1.13758 1.58395
threshold=43.500000000000007 14.000000000000002 31.500000000000004
decision_type=2 8 2
left_child=1 -1 -3
right_child=-2 2 -4
leaf_value=-0.00099875052220623557 0.007192213450445799 -0.0035805174885871053 -0.00041765335920546299
leaf_weight=105.13136076927185 664.44122266769409 90.229471683502197 113.72437715530396
leaf_count=18 90 15 19
internal_value=0.00647435 0 -0.00430129
internal_weight=973.526 309.085 203.954
internal_count=142 52 34
is_linear=0
shrinkage=0.1


Tree=69
num_leaves=5
num_cat=0
split_feature=13 13 16 16
split_gain=1.46838 2.48766 3.36315 0.738966
threshold=9.9175616311682102 9.5634233555765125 2.6545146285449732 1.6685433709773492
decision_type=2 2 10 8
left_child=1 3 -3 -1
right_child=-2 2 -4 -5
leaf_value=-0.00039835588200435462 0.0038236678593754356 -0.025568022030042926 -0.0008495926146580877 0.0071092252598093392
leaf_weight=99.472998142242432 564.62691950798035 53.654461860656738 36.835544109344482 218.9365086555481
leaf_count=20 73 9 6 34
internal_value=0.00623605 0.00128099 -0.0115195 0.00568013
internal_weight=973.526 408.9 90.49 318.41
internal_count=142 69 15 54
is_linear=0
shrinkage=0.1


Tree=70
num_leaves=5
num_cat=0
split_feature=2 19 19 18
split_gain=1.41651 0.730377 1.73213 0.834077
threshold=47.500000000000007 4.07233959172388 2.9674470978097944 10.239357386235183
decision_type=2 2 2 2
left_child=1 2 -1 -3
right_child=-2 3 -4 -5
leaf_value=-2.4007529094572925e-05 0.0043995285407196112 0.010932298595003257 -0.015563842850900298 -0.0003932141329036781
leaf_weight=102.37770485877991 516.90092658996582 253.16921997070312 60.607803821563721 40.470777034759521
leaf_count=18 70 38 10 6
internal_value=0.00591304 0.00148072 -0.0033073 0.0044986
internal_weight=973.526 456.626 162.986 293.64
internal_count=142 72 28 44
is_linear=0
shrinkage=0.1


Tree=71
num_leaves=6
num_cat=0
split_feature=1 13 1 16 16
split_gain=0.749886 2.71696 1.84567 0.0646144 1.10378
threshold=61.500000000000007 9.3940281715605547 58.500000000000007 2.6545146285449732 2.8865273565533651
decision_type=2 2 2 10 8
left_child=1 -1 -3 -2 -5
right_child=3 2 -4 4 -6
leaf_value=0.0019321079180374583 0.0060542118068422262 -0.015826699578914426 -0.0014162220736935627 -0.00038806039796318169 0.00063337449207707941
leaf_weight=190.05123138427734 446.12715673446655 55.254927635192871 30.214171409606934 60.440738201141357 191.43820691108704
leaf_count=34 59 10 5 8 26
internal_value=0.00631411 0.00131655 -0.0114862 0.00805588 0.00486576
internal_weight=973.526 275.52 85.4691 698.006 251.879
internal_count=142 49 15 93 34
is_linear=0
shrinkage=0.1


Tree=72
num_leaves=7
num_cat=1
split_feature=2 13 18 9 6 17
split_gain=0.84021 1.69784 2.79885 0.787153 0.514764 0.0290161
threshold=43.500000000000007 9.3940281715605547 1.0000000180025095e-35 0 21.500000000000004 8.5000000000000018
decision_type=2 2 2 1 2 8
left_child=1 -1 -3 4 -2 -5
right_child=3 2 -4 5 -6 -7
leaf_value=-0.0022730666714092574 0.00019865073371034826 -0.012858879602958057 0.0005950798516645351 0.005630263633517936 -0.00054099918268377676 0.0029374122910486287
leaf_weight=143.55043292045593 37.322684764862061 58.67931079864502 106.85546588897705 144.68913841247559 37.75335693359375 444.6760425567627
leaf_count=25 6 10 17 20 6 58
internal_value=0.00522755 0.000506434 -0.00576088 0.00719864 -0.00110534 0.00842211
internal_weight=973.526 309.085 165.535 664.441 75.076 589.365
internal_count=142 52 27 90 12 78
cat_boundaries=0 1
cat_threshold=1
is_linear=0
shrinkage=0.1


Tree=73
num_leaves=3
num_cat=1
split_feature=9 5
split_gain=0.470461 0.887727
threshold=0 7.5000000000000009
decision_type=1 8
left_child=1 -1
right_child=-2 -3
leaf_value=-0.00048689926441540803 0.003259866704327344 2.8464506791750242e-06
leaf_weight=35.575452327728271 837.40166687965393 100.54931306838989
leaf_count=7 118 17
internal_value=0.00736186 0.000871619
internal_weight=973.526 136.125
internal_count=142 24
cat_boundaries=0 1
cat_threshold=1
is_linear=0
shrinkage=0.1


Tree=74
num_leaves=5
num_cat=0
split_feature=0 12 1 3
split_gain=0.510074 0.610413 2.96364 1.1746
threshold=0.085000000000000006 11.977596522783886 73.500000000000014 0.60850000000000015
decision_type=2 2 2 2
left_child=-1 3 -3 -2
right_child=1 2 -4 -5
leaf_value=2.558951182420749e-07 0.010310773410935517 -0.00065827986168489618 -0.018418833722251171 -0.0018249103648361375
leaf_weight=423.57931661605835 310.03341150283813 29.10020637512207 134.33581137657166 76.477686405181885
leaf_count=61 48 5 15 13
internal_value=0.00652862 0.00394872 -0.000612568 0.0060587
internal_weight=973.526 549.947 163.436 386.511
internal_count=142 81 20 61
is_linear=0
shrinkage=0.1


Tree=75
num_leaves=5
num_cat=1
split_feature=0 2 5 9
split_gain=1.02423 2.03539 3.30942 1.14143
threshold=0.085000000000000006 43.500000000000007 14.000000000000002 0
decision_type=2 2 8 1
left_child=-1 2 -2 -3
right_child=1 3 -4 -5
leaf_value=2.3030560639923648e-07 0.0091075621673420912 -0.00063748235812099248 -0.012233908965935203 0.0092073256954668583
leaf_weight=423.57931661605835 62.229137659072876 44.412234783172607 57.976826190948486 385.32891702651978
leaf_count=61 11 7 11 52
internal_value=0.00563952 0.00239886 -0.00793708 0.00573674
internal_weight=973.526 549.947 120.206 429.741
internal_count=142 81 22 59
cat_boundaries=0 1
cat_threshold=1
is_linear=0
shrinkage=0.1


Tree=76
num_leaves=4
num_cat=0
split_feature=13 17 16
split_gain=0.509798 0.296498 0.526987
threshold=12.38336776735032 8.5000000000000018 1.2401379729081607
decision_type=2 8 10
left_child=1 2 -1
right_child=-2 -3 -4
leaf_value=-0.01641899402900443 -0.00046905993145269776 0.0011211718909139715 0.0013935949696656784
leaf_weight=36.210561275482178 53.285033702850342 681.93679022789001 202.09404706954956
leaf_count=8 7 99 28
internal_value=0.00779106 0.00834042 0.00395903
internal_weight=973.526 920.241 238.305
internal_count=142 135 36
is_linear=0
shrinkage=0.1


Tree=77
num_leaves=7
num_cat=0
split_feature=5 16 18 3 16 1
split_gain=0.613738 0.97192 0.991484 0.257228 0.297387 0.129925
threshold=7.5000000000000009 2.7534452469724315 6.6990261594534397 0.42500000000000004 2.1216145487388753 54.000000000000007
decision_type=8 8 2 2 10 2
left_child=1 2 -1 4 -2 -5
right_child=3 -3 -4 5 -6 -7
leaf_value=-0.00027636866422035285 -0.0041363473037150439 -0.0010078008337113247 -0.0033002061716957336 -0.022361450454185406 -2.9303259278190552e-05 -2.597463516155977e-05
leaf_weight=104.84388041496277 47.575512886047363 140.47371435165405 75.431134700775146 37.068276882171631 25.083741426467896 543.05017161369324
leaf_count=17 8 21 11 8 4 73
internal_value=0.00652475 0.00229051 -0.00211833 0.00832671 0.000757159 0.00905133
internal_weight=973.526 320.749 180.275 652.778 72.6593 580.118
internal_count=142 49 28 93 12 81
is_linear=0
shrinkage=0.1


Tree=78
num_leaves=4
num_cat=0
split_feature=13 3 3
split_gain=0.440472 0.528055 1.56018
threshold=12.38336776735032 0.42500000000000004 0.40850000000000003
decision_type=2 2 2
left_child=1 2 -1
right_child=-2 -3 -4
leaf_value=-0.0018659220117292965 -9.2133321137843904e-05 0.00056581730397233334 -6.8141151821521362e-05
leaf_weight=97.608679056167603 53.285033702850342 792.23298740386963 30.399732112884521
leaf_count=16 7 114 5
internal_value=0.00713368 0.00764579 0.000657945
internal_weight=973.526 920.241 128.008
internal_count=142 135 21
is_linear=0
shrinkage=0.1


Tree=79
num_leaves=7
num_cat=0
split_feature=5 2 5 12 15 12
split_gain=0.638497 1.28391 0.502956 0.029628 0.0632812 0.0182059
threshold=5.5000000000000009 56.500000000000007 4.5000000000000009 9.1952126959881877 12.452577182310113 8.198809389782344
decision_type=8 2 10 2 2 2
left_child=1 2 -1 5 -5 -2
right_child=3 -3 -4 4 -6 -7
leaf_value=0.0068903146888471718 0.0098942831756996252 -8.2919989024077273e-05 -0.0018126555940920497 0.00097546071771885889 -0.0057780341508376918 -0.062881715563641388
leaf_weight=147.40571761131287 21.122144222259521 40.99476957321167 33.449325561523438 592.45744037628174 113.44997310638428 24.647061824798584
leaf_count=24 4 6 5 82 15 6
internal_value=0.00713368 0.00163938 0.00571078 0.00854116 0.00882019 0.00134375
internal_weight=973.526 221.85 180.855 751.677 705.907 45.7692
internal_count=142 35 29 107 97 10
is_linear=0
shrinkage=0.1


Tree=80
num_leaves=5
num_cat=0
split_feature=17 0 13 19
split_gain=0.722419 1.95737 0.748725 0.205079
threshold=10.500000000000002 0.03500000000000001 12.38336776735032 9.0036950480114566
decision_type=10 2 2 2
left_child=2 -2 3 -1
right_child=1 -3 -4 -5
leaf_value=0.0010395964576273894 -8.5195132545479177e-05 -0.00044550971942845243 -7.4627990121634016e-05 3.3224009207862614e-05
leaf_weight=611.48749279975891 32.731357574462891 87.043843030929565 33.881293773651123 208.3824450969696
leaf_count=94 4 11 5 28
internal_value=0.00656837 0 0.00757138 0.00822856
internal_weight=973.526 119.775 853.751 819.87
internal_count=142 15 127 122
is_linear=0
shrinkage=0.1


Tree=81
num_leaves=6
num_cat=0
split_feature=5 16 15 15 17
split_gain=0.669347 0.97192 0.896746 0.233651 0.267477
threshold=7.5000000000000009 2.7534452469724315 11.520186047411629 1.0000000180025095e-35 17.000000000000004
decision_type=8 8 2 2 8
left_child=1 2 -1 4 -2
right_child=3 -3 -4 -5 -6
leaf_value=0.02975726063123121 -7.6675619290966782e-05 -0.00078014054637083163 -7.5969721158121776e-05 -0.00086330306368716464 -0.032467162091323047
leaf_weight=57.358792304992676 31.199618816375732 140.47371435165405 122.91622281074524 570.49992704391479 51.0781569480896
leaf_count=8 5 21 20 80 8
internal_value=0.006677 0.00229051 -0.00211833 0.00855154 0.00144982
internal_weight=973.526 320.749 180.275 652.778 82.2778
internal_count=142 49 28 93 13
is_linear=0
shrinkage=0.1


Tree=82
num_leaves=6
num_cat=0
split_feature=5 16 14 14 17
split_gain=0.669347 0.97192 1.15513 0.233651 0.267477
threshold=7.5000000000000009 2.7534452469724315 2.740319461670996 1.0000000180025095e-35 17.000000000000004
decision_type=8 8 2 2 8
left_child=1 2 -1 4 -2
right_child=3 -3 -4 -5 -6
leaf_value=0.0061597543411143294 -6.9008057361852343e-05 -0.00070212649173375492 -0.0017895449655517008 -0.00077697275731850664 -0.029220445882190738
leaf_weight=66.153667688369751 31.199618816375732 140.47371435165405 114.12134742736816 570.49992704391479 51.0781569480896
leaf_count=11 5 21 17 80 8
internal_value=0.006677 0.00229051 -0.00211833 0.00855154 0.00144982
internal_weight=973.526 320.749 180.275 652.778 82.2778
internal_count=142 49 28 93 13
is_linear=0
shrinkage=0.1


Tree=83
num_leaves=3
num_cat=0
split_feature=14 19
split_gain=0.0761337 0.407715
threshold=1.0000000180025095e-35 6.6976465840344535
decision_type=2 2
left_child=1 -1
right_child=-2 -3
leaf_value=-0.0013487787354799327 8.926764957919304e-07 -6.2107251625675991e-05
leaf_weight=76.216847896575928 868.05618166923523 29.253402709960938
leaf_count=14 124 4
internal_value=0.00845399 0.00303027
internal_weight=973.526 105.47
internal_count=142 18
is_linear=0
shrinkage=0.1


Tree=84
num_leaves=4
num_cat=0
split_feature=17 3 14
split_gain=0.192906 0.722711 1.03491
threshold=7.5000000000000009 0.60850000000000015 4.9938224302714262
decision_type=10 2 2
left_child=-1 -2 -3
right_child=1 2 -4
leaf_value=0.00069000781306307473 0.0006307419324673145 -0.0014482502345821936 0.00016805408276576728
leaf_weight=738.72045707702637 151.54996943473816 34.898519992828369 48.357485771179199
leaf_count=112 19 5 6
internal_value=0.00845399 0.00436432 -0.0019703
internal_weight=973.526 234.806 83.256
internal_count=142 30 11
is_linear=0
shrinkage=0.1


end of trees

feature_importances:
price_range_ratio=50
log_monthly_visits=41
log_ig_followers=38
number_employes=35
ig_health_score=31
brand_demand_score=30
log_avg_price=27
log_fb_followers=24
meta_active_ads_count=23
log_product_count=23
log_tiktok_followers=23
ig_engagement_rate=19
ig_size_score=16
company_age=15
platform_group=7
ig_is_verified=2
has_meta_ads=2

parameters:
[boosting: gbdt]
[objective: quantile]
[metric: quantile]
[tree_learner: serial]
[device_type: cpu]
[data_sample_strategy: bagging]
[data: ]
[valid: ]
[num_iterations: 500]
[learning_rate: 0.1]
[num_leaves: 7]
[num_threads: 1]
[seed: 42]
[deterministic: 0]
[force_col_wise: 0]
[force_row_wise: 0]
[histogram_pool_size: -1]
[max_depth: 3]
[min_data_in_leaf: 5]
[min_sum_hessian_in_leaf: 0.001]
[bagging_fraction: 0.8]
[pos_bagging_fraction: 1]
[neg_bagging_fraction: 1]
[bagging_freq: 0]
[bagging_seed: 400]
[bagging_by_query: 0]
[feature_fraction: 0.8]
[feature_fraction_bynode: 1]
[feature_fraction_seed: 30056]
[extra_trees: 0]
[extra_seed: 12879]
[early_stopping_round: 0]
[early_stopping_min_delta: 0]
[first_metric_only: 0]
[max_delta_step: 0]
[lambda_l1: 1]
[lambda_l2: 20]
[linear_lambda: 0]
[min_gain_to_split: 0]
[drop_rate: 0.1]
[max_drop: 50]
[skip_drop: 0.5]
[xgboost_dart_mode: 0]
[uniform_drop: 0]
[drop_seed: 17869]
[top_rate: 0.2]
[other_rate: 0.1]
[min_data_per_group: 100]
[max_cat_threshold: 32]
[cat_l2: 10]
[cat_smooth: 10]
[max_cat_to_onehot: 4]
[top_k: 20]
[monotone_constraints: ]
[monotone_constraints_method: basic]
[monotone_penalty: 0]
[feature_contri: ]
[forcedsplits_filename: ]
[refit_decay_rate: 0.9]
[cegb_tradeoff: 1]
[cegb_penalty_split: 0]
[cegb_penalty_feature_lazy: ]
[cegb_penalty_feature_coupled: ]
[path_smooth: 0]
[interaction_constraints: ]
[verbosity: -1]
[saved_feature_importance_type: 0]
[use_quantized_grad: 0]
[num_grad_quant_bins: 4]
[quant_train_renew_leaf: 0]
[stochastic_rounding: 1]
[linear_tree: 0]
[max_bin: 255]
[max_bin_by_feature: ]
[min_data_in_bin: 3]
[bin_construct_sample_cnt: 200000]
[data_random_seed: 175]
[is_enable_sparse: 1]
[enable_bundle: 1]
[use_missing: 1]
[zero_as_missing: 0]
[feature_pre_filter: 1]
[pre_partition: 0]
[two_round: 0]
[header: 0]
[label_column: ]
[weight_column: ]
[group_column: ]
[ignore_column: ]
[categorical_feature: 9]
[forcedbins_filename: ]
[precise_float_parser: 0]
[parser_config_file: ]
[objective_seed: 16083]
[num_class: 1]
[is_unbalance: 0]
[scale_pos_weight: 1]
[sigmoid: 1]
[boost_from_average: 1]
[reg_sqrt: 0]
[alpha: 0.1]
[fair_c: 1]
[poisson_max_delta_step: 0.7]
[tweedie_variance_power: 1.5]
[lambdarank_truncation_level: 30]
[lambdarank_norm: 1]
[label_gain: ]
[lambdarank_position_bias_regularization: 0]
[eval_at: ]
[multi_error_top_k: 1]
[auc_mu_weights: ]
[num_machines: 1]
[local_listen_port: 12400]
[time_out: 120]
[machine_list_filename: ]
[machines: ]
[gpu_platform_id: -1]
[gpu_device_id: -1]
[gpu_use_dp: 0]
[num_gpu: 1]

end of parameters

pandas_categorical:[["other", "shopify", "vtex"]]
